digraph Tree {
node [shape=box] ;
0 [label="F15 <= 11.185\ngini = 0.496\nsamples = 1200\nvalue = [656, 544]"] ;
1 [label="F15 <= 10.665\ngini = 0.457\nsamples = 990\nvalue = [640, 350]"] ;
0 -> 1 [labeldistance=2.5, labelangle=45, headlabel="True"] ;
2 [label="F12 <= -14.37\ngini = 0.15\nsamples = 282\nvalue = [259, 23]"] ;
1 -> 2 ;
3 [label="F8 <= -45.435\ngini = 0.099\nsamples = 249\nvalue = [236, 13]"] ;
2 -> 3 ;
4 [label="F10 <= -11.34\ngini = 0.49\nsamples = 7\nvalue = [4, 3]"] ;
3 -> 4 ;
5 [label="F15 <= 10.43\ngini = 0.375\nsamples = 4\nvalue = [1, 3]"] ;
4 -> 5 ;
6 [label="gini = 0.0\nsamples = 3\nvalue = [0, 3]"] ;
5 -> 6 ;
7 [label="gini = 0.0\nsamples = 1\nvalue = [1, 0]"] ;
5 -> 7 ;
8 [label="gini = 0.0\nsamples = 3\nvalue = [3, 0]"] ;
4 -> 8 ;
9 [label="F14 <= 11.84\ngini = 0.079\nsamples = 242\nvalue = [232, 10]"] ;
3 -> 9 ;
10 [label="F7 <= 11.955\ngini = 0.072\nsamples = 241\nvalue = [232, 9]"] ;
9 -> 10 ;
11 [label="F11 <= 0.5\ngini = 0.064\nsamples = 240\nvalue = [232, 8]"] ;
10 -> 11 ;
12 [label="F7 <= 4.725\ngini = 0.5\nsamples = 2\nvalue = [1, 1]"] ;
11 -> 12 ;
13 [label="gini = 0.0\nsamples = 1\nvalue = [0, 1]"] ;
12 -> 13 ;
14 [label="gini = 0.0\nsamples = 1\nvalue = [1, 0]"] ;
12 -> 14 ;
15 [label="F8 <= -41.685\ngini = 0.057\nsamples = 238\nvalue = [231, 7]"] ;
11 -> 15 ;
16 [label="F13 <= 5.2\ngini = 0.208\nsamples = 34\nvalue = [30, 4]"] ;
15 -> 16 ;
17 [label="gini = 0.0\nsamples = 1\nvalue = [0, 1]"] ;
16 -> 17 ;
18 [label="F14 <= 4.675\ngini = 0.165\nsamples = 33\nvalue = [30, 3]"] ;
16 -> 18 ;
19 [label="gini = 0.0\nsamples = 18\nvalue = [18, 0]"] ;
18 -> 19 ;
20 [label="F14 <= 4.805\ngini = 0.32\nsamples = 15\nvalue = [12, 3]"] ;
18 -> 20 ;
21 [label="F1 <= -171.81\ngini = 0.444\nsamples = 3\nvalue = [1, 2]"] ;
20 -> 21 ;
22 [label="gini = 0.0\nsamples = 2\nvalue = [0, 2]"] ;
21 -> 22 ;
23 [label="gini = 0.0\nsamples = 1\nvalue = [1, 0]"] ;
21 -> 23 ;
24 [label="F1 <= -74.31\ngini = 0.153\nsamples = 12\nvalue = [11, 1]"] ;
20 -> 24 ;
25 [label="gini = 0.0\nsamples = 10\nvalue = [10, 0]"] ;
24 -> 25 ;
26 [label="F8 <= -42.285\ngini = 0.5\nsamples = 2\nvalue = [1, 1]"] ;
24 -> 26 ;
27 [label="gini = 0.0\nsamples = 1\nvalue = [0, 1]"] ;
26 -> 27 ;
28 [label="gini = 0.0\nsamples = 1\nvalue = [1, 0]"] ;
26 -> 28 ;
29 [label="F11 <= 11.5\ngini = 0.029\nsamples = 204\nvalue = [201, 3]"] ;
15 -> 29 ;
30 [label="F4 <= 0.835\ngini = 0.204\nsamples = 26\nvalue = [23, 3]"] ;
29 -> 30 ;
31 [label="gini = 0.0\nsamples = 19\nvalue = [19, 0]"] ;
30 -> 31 ;
32 [label="F5 <= 1.06\ngini = 0.49\nsamples = 7\nvalue = [4, 3]"] ;
30 -> 32 ;
33 [label="F12 <= -27.87\ngini = 0.375\nsamples = 4\nvalue = [1, 3]"] ;
32 -> 33 ;
34 [label="gini = 0.0\nsamples = 3\nvalue = [0, 3]"] ;
33 -> 34 ;
35 [label="gini = 0.0\nsamples = 1\nvalue = [1, 0]"] ;
33 -> 35 ;
36 [label="gini = 0.0\nsamples = 3\nvalue = [3, 0]"] ;
32 -> 36 ;
37 [label="gini = 0.0\nsamples = 178\nvalue = [178, 0]"] ;
29 -> 37 ;
38 [label="gini = 0.0\nsamples = 1\nvalue = [0, 1]"] ;
10 -> 38 ;
39 [label="gini = 0.0\nsamples = 1\nvalue = [0, 1]"] ;
9 -> 39 ;
40 [label="F15 <= 10.135\ngini = 0.422\nsamples = 33\nvalue = [23, 10]"] ;
2 -> 40 ;
41 [label="F11 <= 48.0\ngini = 0.124\nsamples = 15\nvalue = [14, 1]"] ;
40 -> 41 ;
42 [label="gini = 0.0\nsamples = 12\nvalue = [12, 0]"] ;
41 -> 42 ;
43 [label="F11 <= 85.5\ngini = 0.444\nsamples = 3\nvalue = [2, 1]"] ;
41 -> 43 ;
44 [label="gini = 0.0\nsamples = 1\nvalue = [0, 1]"] ;
43 -> 44 ;
45 [label="gini = 0.0\nsamples = 2\nvalue = [2, 0]"] ;
43 -> 45 ;
46 [label="F4 <= 0.735\ngini = 0.5\nsamples = 18\nvalue = [9, 9]"] ;
40 -> 46 ;
47 [label="F8 <= -22.755\ngini = 0.426\nsamples = 13\nvalue = [9, 4]"] ;
46 -> 47 ;
48 [label="F10 <= -21.46\ngini = 0.444\nsamples = 6\nvalue = [2, 4]"] ;
47 -> 48 ;
49 [label="F7 <= 10.47\ngini = 0.444\nsamples = 3\nvalue = [2, 1]"] ;
48 -> 49 ;
50 [label="gini = 0.0\nsamples = 2\nvalue = [2, 0]"] ;
49 -> 50 ;
51 [label="gini = 0.0\nsamples = 1\nvalue = [0, 1]"] ;
49 -> 51 ;
52 [label="gini = 0.0\nsamples = 3\nvalue = [0, 3]"] ;
48 -> 52 ;
53 [label="gini = 0.0\nsamples = 7\nvalue = [7, 0]"] ;
47 -> 53 ;
54 [label="gini = 0.0\nsamples = 5\nvalue = [0, 5]"] ;
46 -> 54 ;
55 [label="F12 <= -34.37\ngini = 0.497\nsamples = 708\nvalue = [381, 327]"] ;
1 -> 55 ;
56 [label="F7 <= -12.18\ngini = 0.459\nsamples = 389\nvalue = [250, 139]"] ;
55 -> 56 ;
57 [label="F5 <= 0.24\ngini = 0.4\nsamples = 94\nvalue = [26, 68]"] ;
56 -> 57 ;
58 [label="F14 <= 8.215\ngini = 0.208\nsamples = 51\nvalue = [6, 45]"] ;
57 -> 58 ;
59 [label="F10 <= -16.97\ngini = 0.15\nsamples = 49\nvalue = [4, 45]"] ;
58 -> 59 ;
60 [label="gini = 0.0\nsamples = 1\nvalue = [1, 0]"] ;
59 -> 60 ;
61 [label="F11 <= 372.5\ngini = 0.117\nsamples = 48\nvalue = [3, 45]"] ;
59 -> 61 ;
62 [label="F2 <= 3.015\ngini = 0.081\nsamples = 47\nvalue = [2, 45]"] ;
61 -> 62 ;
63 [label="F7 <= -15.33\ngini = 0.043\nsamples = 45\nvalue = [1, 44]"] ;
62 -> 63 ;
64 [label="F8 <= -42.81\ngini = 0.444\nsamples = 3\nvalue = [1, 2]"] ;
63 -> 64 ;
65 [label="gini = 0.0\nsamples = 1\nvalue = [1, 0]"] ;
64 -> 65 ;
66 [label="gini = 0.0\nsamples = 2\nvalue = [0, 2]"] ;
64 -> 66 ;
67 [label="gini = 0.0\nsamples = 42\nvalue = [0, 42]"] ;
63 -> 67 ;
68 [label="F10 <= -12.05\ngini = 0.5\nsamples = 2\nvalue = [1, 1]"] ;
62 -> 68 ;
69 [label="gini = 0.0\nsamples = 1\nvalue = [0, 1]"] ;
68 -> 69 ;
70 [label="gini = 0.0\nsamples = 1\nvalue = [1, 0]"] ;
68 -> 70 ;
71 [label="gini = 0.0\nsamples = 1\nvalue = [1, 0]"] ;
61 -> 71 ;
72 [label="gini = 0.0\nsamples = 2\nvalue = [2, 0]"] ;
58 -> 72 ;
73 [label="F11 <= 232.5\ngini = 0.498\nsamples = 43\nvalue = [20, 23]"] ;
57 -> 73 ;
74 [label="F2 <= -1.425\ngini = 0.346\nsamples = 18\nvalue = [4, 14]"] ;
73 -> 74 ;
75 [label="F7 <= -13.095\ngini = 0.124\nsamples = 15\nvalue = [1, 14]"] ;
74 -> 75 ;
76 [label="gini = 0.0\nsamples = 12\nvalue = [0, 12]"] ;
75 -> 76 ;
77 [label="F5 <= 1.17\ngini = 0.444\nsamples = 3\nvalue = [1, 2]"] ;
75 -> 77 ;
78 [label="gini = 0.0\nsamples = 2\nvalue = [0, 2]"] ;
77 -> 78 ;
79 [label="gini = 0.0\nsamples = 1\nvalue = [1, 0]"] ;
77 -> 79 ;
80 [label="gini = 0.0\nsamples = 3\nvalue = [3, 0]"] ;
74 -> 80 ;
81 [label="F13 <= 10.575\ngini = 0.461\nsamples = 25\nvalue = [16, 9]"] ;
73 -> 81 ;
82 [label="F10 <= -10.78\ngini = 0.332\nsamples = 19\nvalue = [15, 4]"] ;
81 -> 82 ;
83 [label="F4 <= 9.525\ngini = 0.124\nsamples = 15\nvalue = [14, 1]"] ;
82 -> 83 ;
84 [label="gini = 0.0\nsamples = 13\nvalue = [13, 0]"] ;
83 -> 84 ;
85 [label="F8 <= -39.51\ngini = 0.5\nsamples = 2\nvalue = [1, 1]"] ;
83 -> 85 ;
86 [label="gini = 0.0\nsamples = 1\nvalue = [0, 1]"] ;
85 -> 86 ;
87 [label="gini = 0.0\nsamples = 1\nvalue = [1, 0]"] ;
85 -> 87 ;
88 [label="F8 <= -48.21\ngini = 0.375\nsamples = 4\nvalue = [1, 3]"] ;
82 -> 88 ;
89 [label="gini = 0.0\nsamples = 1\nvalue = [1, 0]"] ;
88 -> 89 ;
90 [label="gini = 0.0\nsamples = 3\nvalue = [0, 3]"] ;
88 -> 90 ;
91 [label="F4 <= 8.95\ngini = 0.278\nsamples = 6\nvalue = [1, 5]"] ;
81 -> 91 ;
92 [label="gini = 0.0\nsamples = 5\nvalue = [0, 5]"] ;
91 -> 92 ;
93 [label="gini = 0.0\nsamples = 1\nvalue = [1, 0]"] ;
91 -> 93 ;
94 [label="F8 <= -43.785\ngini = 0.366\nsamples = 295\nvalue = [224, 71]"] ;
56 -> 94 ;
95 [label="F9 <= -43.14\ngini = 0.393\nsamples = 26\nvalue = [7, 19]"] ;
94 -> 95 ;
96 [label="F12 <= -209.87\ngini = 0.117\nsamples = 16\nvalue = [1, 15]"] ;
95 -> 96 ;
97 [label="F4 <= 6.225\ngini = 0.5\nsamples = 2\nvalue = [1, 1]"] ;
96 -> 97 ;
98 [label="gini = 0.0\nsamples = 1\nvalue = [1, 0]"] ;
97 -> 98 ;
99 [label="gini = 0.0\nsamples = 1\nvalue = [0, 1]"] ;
97 -> 99 ;
100 [label="gini = 0.0\nsamples = 14\nvalue = [0, 14]"] ;
96 -> 100 ;
101 [label="F8 <= -46.56\ngini = 0.48\nsamples = 10\nvalue = [6, 4]"] ;
95 -> 101 ;
102 [label="gini = 0.0\nsamples = 3\nvalue = [0, 3]"] ;
101 -> 102 ;
103 [label="F15 <= 10.887\ngini = 0.245\nsamples = 7\nvalue = [6, 1]"] ;
101 -> 103 ;
104 [label="gini = 0.0\nsamples = 6\nvalue = [6, 0]"] ;
103 -> 104 ;
105 [label="gini = 0.0\nsamples = 1\nvalue = [0, 1]"] ;
103 -> 105 ;
106 [label="F12 <= -92.37\ngini = 0.312\nsamples = 269\nvalue = [217, 52]"] ;
94 -> 106 ;
107 [label="F8 <= -41.835\ngini = 0.14\nsamples = 132\nvalue = [122, 10]"] ;
106 -> 107 ;
108 [label="F14 <= 5.31\ngini = 0.408\nsamples = 21\nvalue = [15, 6]"] ;
107 -> 108 ;
109 [label="F8 <= -42.135\ngini = 0.278\nsamples = 18\nvalue = [15, 3]"] ;
108 -> 109 ;
110 [label="gini = 0.0\nsamples = 12\nvalue = [12, 0]"] ;
109 -> 110 ;
111 [label="F7 <= -10.845\ngini = 0.5\nsamples = 6\nvalue = [3, 3]"] ;
109 -> 111 ;
112 [label="gini = 0.0\nsamples = 2\nvalue = [0, 2]"] ;
111 -> 112 ;
113 [label="F2 <= -5.355\ngini = 0.375\nsamples = 4\nvalue = [3, 1]"] ;
111 -> 113 ;
114 [label="gini = 0.0\nsamples = 1\nvalue = [0, 1]"] ;
113 -> 114 ;
115 [label="gini = 0.0\nsamples = 3\nvalue = [3, 0]"] ;
113 -> 115 ;
116 [label="gini = 0.0\nsamples = 3\nvalue = [0, 3]"] ;
108 -> 116 ;
117 [label="F6 <= 2.7\ngini = 0.069\nsamples = 111\nvalue = [107, 4]"] ;
107 -> 117 ;
118 [label="F5 <= -3.55\ngini = 0.019\nsamples = 103\nvalue = [102, 1]"] ;
117 -> 118 ;
119 [label="F2 <= -2.61\ngini = 0.278\nsamples = 6\nvalue = [5, 1]"] ;
118 -> 119 ;
120 [label="gini = 0.0\nsamples = 1\nvalue = [0, 1]"] ;
119 -> 120 ;
121 [label="gini = 0.0\nsamples = 5\nvalue = [5, 0]"] ;
119 -> 121 ;
122 [label="gini = 0.0\nsamples = 97\nvalue = [97, 0]"] ;
118 -> 122 ;
123 [label="F13 <= 12.575\ngini = 0.469\nsamples = 8\nvalue = [5, 3]"] ;
117 -> 123 ;
124 [label="F8 <= -39.285\ngini = 0.278\nsamples = 6\nvalue = [5, 1]"] ;
123 -> 124 ;
125 [label="gini = 0.0\nsamples = 1\nvalue = [0, 1]"] ;
124 -> 125 ;
126 [label="gini = 0.0\nsamples = 5\nvalue = [5, 0]"] ;
124 -> 126 ;
127 [label="gini = 0.0\nsamples = 2\nvalue = [0, 2]"] ;
123 -> 127 ;
128 [label="F7 <= -11.325\ngini = 0.425\nsamples = 137\nvalue = [95, 42]"] ;
106 -> 128 ;
129 [label="gini = 0.0\nsamples = 6\nvalue = [0, 6]"] ;
128 -> 129 ;
130 [label="F1 <= -254.31\ngini = 0.399\nsamples = 131\nvalue = [95, 36]"] ;
128 -> 130 ;
131 [label="F5 <= -2.55\ngini = 0.291\nsamples = 68\nvalue = [56, 12]"] ;
130 -> 131 ;
132 [label="gini = 0.0\nsamples = 2\nvalue = [0, 2]"] ;
131 -> 132 ;
133 [label="F14 <= 8.22\ngini = 0.257\nsamples = 66\nvalue = [56, 10]"] ;
131 -> 133 ;
134 [label="gini = 0.0\nsamples = 29\nvalue = [29, 0]"] ;
133 -> 134 ;
135 [label="F8 <= -22.74\ngini = 0.394\nsamples = 37\nvalue = [27, 10]"] ;
133 -> 135 ;
136 [label="F4 <= 0.605\ngini = 0.494\nsamples = 18\nvalue = [8, 10]"] ;
135 -> 136 ;
137 [label="F5 <= 4.47\ngini = 0.444\nsamples = 12\nvalue = [8, 4]"] ;
136 -> 137 ;
138 [label="F2 <= 10.14\ngini = 0.32\nsamples = 10\nvalue = [8, 2]"] ;
137 -> 138 ;
139 [label="gini = 0.0\nsamples = 7\nvalue = [7, 0]"] ;
138 -> 139 ;
140 [label="F4 <= 0.325\ngini = 0.444\nsamples = 3\nvalue = [1, 2]"] ;
138 -> 140 ;
141 [label="gini = 0.0\nsamples = 1\nvalue = [1, 0]"] ;
140 -> 141 ;
142 [label="gini = 0.0\nsamples = 2\nvalue = [0, 2]"] ;
140 -> 142 ;
143 [label="gini = 0.0\nsamples = 2\nvalue = [0, 2]"] ;
137 -> 143 ;
144 [label="gini = 0.0\nsamples = 6\nvalue = [0, 6]"] ;
136 -> 144 ;
145 [label="gini = 0.0\nsamples = 19\nvalue = [19, 0]"] ;
135 -> 145 ;
146 [label="F11 <= 35.5\ngini = 0.472\nsamples = 63\nvalue = [39, 24]"] ;
130 -> 146 ;
147 [label="F13 <= 1.61\ngini = 0.5\nsamples = 38\nvalue = [19, 19]"] ;
146 -> 147 ;
148 [label="F4 <= 0.925\ngini = 0.403\nsamples = 25\nvalue = [18, 7]"] ;
147 -> 148 ;
149 [label="F6 <= -6.03\ngini = 0.298\nsamples = 22\nvalue = [18, 4]"] ;
148 -> 149 ;
150 [label="F12 <= -42.37\ngini = 0.105\nsamples = 18\nvalue = [17, 1]"] ;
149 -> 150 ;
151 [label="F4 <= 0.265\ngini = 0.444\nsamples = 3\nvalue = [2, 1]"] ;
150 -> 151 ;
152 [label="gini = 0.0\nsamples = 1\nvalue = [0, 1]"] ;
151 -> 152 ;
153 [label="gini = 0.0\nsamples = 2\nvalue = [2, 0]"] ;
151 -> 153 ;
154 [label="gini = 0.0\nsamples = 15\nvalue = [15, 0]"] ;
150 -> 154 ;
155 [label="F2 <= 7.935\ngini = 0.375\nsamples = 4\nvalue = [1, 3]"] ;
149 -> 155 ;
156 [label="gini = 0.0\nsamples = 1\nvalue = [1, 0]"] ;
155 -> 156 ;
157 [label="gini = 0.0\nsamples = 3\nvalue = [0, 3]"] ;
155 -> 157 ;
158 [label="gini = 0.0\nsamples = 3\nvalue = [0, 3]"] ;
148 -> 158 ;
159 [label="F12 <= -41.87\ngini = 0.142\nsamples = 13\nvalue = [1, 12]"] ;
147 -> 159 ;
160 [label="F12 <= -43.37\ngini = 0.5\nsamples = 2\nvalue = [1, 1]"] ;
159 -> 160 ;
161 [label="gini = 0.0\nsamples = 1\nvalue = [0, 1]"] ;
160 -> 161 ;
162 [label="gini = 0.0\nsamples = 1\nvalue = [1, 0]"] ;
160 -> 162 ;
163 [label="gini = 0.0\nsamples = 11\nvalue = [0, 11]"] ;
159 -> 163 ;
164 [label="F1 <= -119.31\ngini = 0.32\nsamples = 25\nvalue = [20, 5]"] ;
146 -> 164 ;
165 [label="F13 <= 1.59\ngini = 0.1\nsamples = 19\nvalue = [18, 1]"] ;
164 -> 165 ;
166 [label="F5 <= 1.36\ngini = 0.444\nsamples = 3\nvalue = [2, 1]"] ;
165 -> 166 ;
167 [label="gini = 0.0\nsamples = 2\nvalue = [2, 0]"] ;
166 -> 167 ;
168 [label="gini = 0.0\nsamples = 1\nvalue = [0, 1]"] ;
166 -> 168 ;
169 [label="gini = 0.0\nsamples = 16\nvalue = [16, 0]"] ;
165 -> 169 ;
170 [label="F5 <= -2.25\ngini = 0.444\nsamples = 6\nvalue = [2, 4]"] ;
164 -> 170 ;
171 [label="gini = 0.0\nsamples = 2\nvalue = [2, 0]"] ;
170 -> 171 ;
172 [label="gini = 0.0\nsamples = 4\nvalue = [0, 4]"] ;
170 -> 172 ;
173 [label="F8 <= -22.245\ngini = 0.484\nsamples = 319\nvalue = [131, 188]"] ;
55 -> 173 ;
174 [label="F4 <= 0.245\ngini = 0.405\nsamples = 223\nvalue = [63, 160]"] ;
173 -> 174 ;
175 [label="F8 <= -23.31\ngini = 0.424\nsamples = 36\nvalue = [25, 11]"] ;
174 -> 175 ;
176 [label="F7 <= 4.635\ngini = 0.346\nsamples = 9\nvalue = [2, 7]"] ;
175 -> 176 ;
177 [label="gini = 0.0\nsamples = 7\nvalue = [0, 7]"] ;
176 -> 177 ;
178 [label="gini = 0.0\nsamples = 2\nvalue = [2, 0]"] ;
176 -> 178 ;
179 [label="F1 <= -224.31\ngini = 0.252\nsamples = 27\nvalue = [23, 4]"] ;
175 -> 179 ;
180 [label="F2 <= 7.275\ngini = 0.147\nsamples = 25\nvalue = [23, 2]"] ;
179 -> 180 ;
181 [label="gini = 0.0\nsamples = 1\nvalue = [0, 1]"] ;
180 -> 181 ;
182 [label="F12 <= -0.37\ngini = 0.08\nsamples = 24\nvalue = [23, 1]"] ;
180 -> 182 ;
183 [label="gini = 0.0\nsamples = 23\nvalue = [23, 0]"] ;
182 -> 183 ;
184 [label="gini = 0.0\nsamples = 1\nvalue = [0, 1]"] ;
182 -> 184 ;
185 [label="gini = 0.0\nsamples = 2\nvalue = [0, 2]"] ;
179 -> 185 ;
186 [label="F11 <= 162.5\ngini = 0.324\nsamples = 187\nvalue = [38, 149]"] ;
174 -> 186 ;
187 [label="F4 <= 0.545\ngini = 0.257\nsamples = 165\nvalue = [25, 140]"] ;
186 -> 187 ;
188 [label="F8 <= -23.085\ngini = 0.44\nsamples = 55\nvalue = [18, 37]"] ;
187 -> 188 ;
189 [label="gini = 0.0\nsamples = 27\nvalue = [0, 27]"] ;
188 -> 189 ;
190 [label="F10 <= -20.76\ngini = 0.459\nsamples = 28\nvalue = [18, 10]"] ;
188 -> 190 ;
191 [label="F6 <= -5.64\ngini = 0.34\nsamples = 23\nvalue = [18, 5]"] ;
190 -> 191 ;
192 [label="F1 <= -246.81\ngini = 0.245\nsamples = 21\nvalue = [18, 3]"] ;
191 -> 192 ;
193 [label="gini = 0.0\nsamples = 15\nvalue = [15, 0]"] ;
192 -> 193 ;
194 [label="F11 <= 48.5\ngini = 0.5\nsamples = 6\nvalue = [3, 3]"] ;
192 -> 194 ;
195 [label="gini = 0.0\nsamples = 3\nvalue = [0, 3]"] ;
194 -> 195 ;
196 [label="gini = 0.0\nsamples = 3\nvalue = [3, 0]"] ;
194 -> 196 ;
197 [label="gini = 0.0\nsamples = 2\nvalue = [0, 2]"] ;
191 -> 197 ;
198 [label="gini = 0.0\nsamples = 5\nvalue = [0, 5]"] ;
190 -> 198 ;
199 [label="F1 <= -222.81\ngini = 0.119\nsamples = 110\nvalue = [7, 103]"] ;
187 -> 199 ;
200 [label="F8 <= -22.365\ngini = 0.072\nsamples = 107\nvalue = [4, 103]"] ;
199 -> 200 ;
201 [label="F13 <= 0.095\ngini = 0.039\nsamples = 100\nvalue = [2, 98]"] ;
200 -> 201 ;
202 [label="F4 <= 0.675\ngini = 0.5\nsamples = 2\nvalue = [1, 1]"] ;
201 -> 202 ;
203 [label="gini = 0.0\nsamples = 1\nvalue = [0, 1]"] ;
202 -> 203 ;
204 [label="gini = 0.0\nsamples = 1\nvalue = [1, 0]"] ;
202 -> 204 ;
205 [label="F10 <= -29.41\ngini = 0.02\nsamples = 98\nvalue = [1, 97]"] ;
201 -> 205 ;
206 [label="F4 <= 0.74\ngini = 0.5\nsamples = 2\nvalue = [1, 1]"] ;
205 -> 206 ;
207 [label="gini = 0.0\nsamples = 1\nvalue = [1, 0]"] ;
206 -> 207 ;
208 [label="gini = 0.0\nsamples = 1\nvalue = [0, 1]"] ;
206 -> 208 ;
209 [label="gini = 0.0\nsamples = 96\nvalue = [0, 96]"] ;
205 -> 209 ;
210 [label="F4 <= 0.735\ngini = 0.408\nsamples = 7\nvalue = [2, 5]"] ;
200 -> 210 ;
211 [label="F11 <= 23.5\ngini = 0.444\nsamples = 3\nvalue = [2, 1]"] ;
210 -> 211 ;
212 [label="gini = 0.0\nsamples = 2\nvalue = [2, 0]"] ;
211 -> 212 ;
213 [label="gini = 0.0\nsamples = 1\nvalue = [0, 1]"] ;
211 -> 213 ;
214 [label="gini = 0.0\nsamples = 4\nvalue = [0, 4]"] ;
210 -> 214 ;
215 [label="gini = 0.0\nsamples = 3\nvalue = [3, 0]"] ;
199 -> 215 ;
216 [label="F8 <= -45.135\ngini = 0.483\nsamples = 22\nvalue = [13, 9]"] ;
186 -> 216 ;
217 [label="gini = 0.0\nsamples = 5\nvalue = [0, 5]"] ;
216 -> 217 ;
218 [label="F1 <= -194.31\ngini = 0.36\nsamples = 17\nvalue = [13, 4]"] ;
216 -> 218 ;
219 [label="F2 <= -7.185\ngini = 0.133\nsamples = 14\nvalue = [13, 1]"] ;
218 -> 219 ;
220 [label="F7 <= -11.04\ngini = 0.5\nsamples = 2\nvalue = [1, 1]"] ;
219 -> 220 ;
221 [label="gini = 0.0\nsamples = 1\nvalue = [1, 0]"] ;
220 -> 221 ;
222 [label="gini = 0.0\nsamples = 1\nvalue = [0, 1]"] ;
220 -> 222 ;
223 [label="gini = 0.0\nsamples = 12\nvalue = [12, 0]"] ;
219 -> 223 ;
224 [label="gini = 0.0\nsamples = 3\nvalue = [0, 3]"] ;
218 -> 224 ;
225 [label="F5 <= -0.97\ngini = 0.413\nsamples = 96\nvalue = [68, 28]"] ;
173 -> 225 ;
226 [label="gini = 0.0\nsamples = 9\nvalue = [0, 9]"] ;
225 -> 226 ;
227 [label="F1 <= -236.31\ngini = 0.341\nsamples = 87\nvalue = [68, 19]"] ;
225 -> 227 ;
228 [label="F12 <= -3.37\ngini = 0.242\nsamples = 71\nvalue = [61, 10]"] ;
227 -> 228 ;
229 [label="F5 <= -0.89\ngini = 0.168\nsamples = 65\nvalue = [59, 6]"] ;
228 -> 229 ;
230 [label="F6 <= -10.03\ngini = 0.444\nsamples = 3\nvalue = [1, 2]"] ;
229 -> 230 ;
231 [label="gini = 0.0\nsamples = 1\nvalue = [1, 0]"] ;
230 -> 231 ;
232 [label="gini = 0.0\nsamples = 2\nvalue = [0, 2]"] ;
230 -> 232 ;
233 [label="F13 <= 1.885\ngini = 0.121\nsamples = 62\nvalue = [58, 4]"] ;
229 -> 233 ;
234 [label="F4 <= 1.015\ngini = 0.037\nsamples = 53\nvalue = [52, 1]"] ;
233 -> 234 ;
235 [label="gini = 0.0\nsamples = 51\nvalue = [51, 0]"] ;
234 -> 235 ;
236 [label="F1 <= -267.81\ngini = 0.5\nsamples = 2\nvalue = [1, 1]"] ;
234 -> 236 ;
237 [label="gini = 0.0\nsamples = 1\nvalue = [1, 0]"] ;
236 -> 237 ;
238 [label="gini = 0.0\nsamples = 1\nvalue = [0, 1]"] ;
236 -> 238 ;
239 [label="F1 <= -273.81\ngini = 0.444\nsamples = 9\nvalue = [6, 3]"] ;
233 -> 239 ;
240 [label="gini = 0.0\nsamples = 5\nvalue = [5, 0]"] ;
239 -> 240 ;
241 [label="F2 <= 9.39\ngini = 0.375\nsamples = 4\nvalue = [1, 3]"] ;
239 -> 241 ;
242 [label="gini = 0.0\nsamples = 3\nvalue = [0, 3]"] ;
241 -> 242 ;
243 [label="gini = 0.0\nsamples = 1\nvalue = [1, 0]"] ;
241 -> 243 ;
244 [label="F4 <= 0.825\ngini = 0.444\nsamples = 6\nvalue = [2, 4]"] ;
228 -> 244 ;
245 [label="F2 <= 9.885\ngini = 0.444\nsamples = 3\nvalue = [2, 1]"] ;
244 -> 245 ;
246 [label="gini = 0.0\nsamples = 1\nvalue = [0, 1]"] ;
245 -> 246 ;
247 [label="gini = 0.0\nsamples = 2\nvalue = [2, 0]"] ;
245 -> 247 ;
248 [label="gini = 0.0\nsamples = 3\nvalue = [0, 3]"] ;
244 -> 248 ;
249 [label="F13 <= 1.415\ngini = 0.492\nsamples = 16\nvalue = [7, 9]"] ;
227 -> 249 ;
250 [label="F5 <= 1.3\ngini = 0.463\nsamples = 11\nvalue = [7, 4]"] ;
249 -> 250 ;
251 [label="F1 <= -233.31\ngini = 0.219\nsamples = 8\nvalue = [7, 1]"] ;
250 -> 251 ;
252 [label="gini = 0.0\nsamples = 1\nvalue = [0, 1]"] ;
251 -> 252 ;
253 [label="gini = 0.0\nsamples = 7\nvalue = [7, 0]"] ;
251 -> 253 ;
254 [label="gini = 0.0\nsamples = 3\nvalue = [0, 3]"] ;
250 -> 254 ;
255 [label="gini = 0.0\nsamples = 5\nvalue = [0, 5]"] ;
249 -> 255 ;
256 [label="F8 <= -22.605\ngini = 0.141\nsamples = 210\nvalue = [16, 194]"] ;
0 -> 256 [labeldistance=2.5, labelangle=-45, headlabel="False"] ;
257 [label="F5 <= -3.65\ngini = 0.07\nsamples = 166\nvalue = [6, 160]"] ;
256 -> 257 ;
258 [label="gini = 0.0\nsamples = 1\nvalue = [1, 0]"] ;
257 -> 258 ;
259 [label="F4 <= 0.155\ngini = 0.059\nsamples = 165\nvalue = [5, 160]"] ;
257 -> 259 ;
260 [label="F13 <= 1.61\ngini = 0.5\nsamples = 2\nvalue = [1, 1]"] ;
259 -> 260 ;
261 [label="gini = 0.0\nsamples = 1\nvalue = [0, 1]"] ;
260 -> 261 ;
262 [label="gini = 0.0\nsamples = 1\nvalue = [1, 0]"] ;
260 -> 262 ;
263 [label="F1 <= -539.31\ngini = 0.048\nsamples = 163\nvalue = [4, 159]"] ;
259 -> 263 ;
264 [label="F6 <= 2.56\ngini = 0.444\nsamples = 3\nvalue = [1, 2]"] ;
263 -> 264 ;
265 [label="gini = 0.0\nsamples = 2\nvalue = [0, 2]"] ;
264 -> 265 ;
266 [label="gini = 0.0\nsamples = 1\nvalue = [1, 0]"] ;
264 -> 266 ;
267 [label="F15 <= 11.265\ngini = 0.037\nsamples = 160\nvalue = [3, 157]"] ;
263 -> 267 ;
268 [label="F15 <= 11.255\ngini = 0.278\nsamples = 12\nvalue = [2, 10]"] ;
267 -> 268 ;
269 [label="gini = 0.0\nsamples = 9\nvalue = [0, 9]"] ;
268 -> 269 ;
270 [label="F4 <= 6.9\ngini = 0.444\nsamples = 3\nvalue = [2, 1]"] ;
268 -> 270 ;
271 [label="gini = 0.0\nsamples = 2\nvalue = [2, 0]"] ;
270 -> 271 ;
272 [label="gini = 0.0\nsamples = 1\nvalue = [0, 1]"] ;
270 -> 272 ;
273 [label="F6 <= -8.79\ngini = 0.013\nsamples = 148\nvalue = [1, 147]"] ;
267 -> 273 ;
274 [label="F6 <= -9.18\ngini = 0.142\nsamples = 13\nvalue = [1, 12]"] ;
273 -> 274 ;
275 [label="gini = 0.0\nsamples = 12\nvalue = [0, 12]"] ;
274 -> 275 ;
276 [label="gini = 0.0\nsamples = 1\nvalue = [1, 0]"] ;
274 -> 276 ;
277 [label="gini = 0.0\nsamples = 135\nvalue = [0, 135]"] ;
273 -> 277 ;
278 [label="F12 <= -30.87\ngini = 0.351\nsamples = 44\nvalue = [10, 34]"] ;
256 -> 278 ;
279 [label="F13 <= 0.96\ngini = 0.49\nsamples = 14\nvalue = [8, 6]"] ;
278 -> 279 ;
280 [label="gini = 0.0\nsamples = 6\nvalue = [6, 0]"] ;
279 -> 280 ;
281 [label="F11 <= 14.5\ngini = 0.375\nsamples = 8\nvalue = [2, 6]"] ;
279 -> 281 ;
282 [label="gini = 0.0\nsamples = 2\nvalue = [2, 0]"] ;
281 -> 282 ;
283 [label="gini = 0.0\nsamples = 6\nvalue = [0, 6]"] ;
281 -> 283 ;
284 [label="F7 <= 8.715\ngini = 0.124\nsamples = 30\nvalue = [2, 28]"] ;
278 -> 284 ;
285 [label="gini = 0.0\nsamples = 25\nvalue = [0, 25]"] ;
284 -> 285 ;
286 [label="F15 <= 11.615\ngini = 0.48\nsamples = 5\nvalue = [2, 3]"] ;
284 -> 286 ;
287 [label="gini = 0.0\nsamples = 2\nvalue = [2, 0]"] ;
286 -> 287 ;
288 [label="gini = 0.0\nsamples = 3\nvalue = [0, 3]"] ;
286 -> 288 ;
}